<?xml version="1.0"?>
<opencv_storage>
<cascade>
  <stageType>BOOST</stageType>
  <featureType>HAAR</featureType>
  <height>20</height>
  <width>20</width>
  <stageParams>
    <boostType>GAB</boostType>
    <minHitRate>9.9900001287460327e-01</minHitRate>
    <maxFalseAlarm>5.0000000745058060e-02</maxFalseAlarm>
    <weightTrimRate>9.4999999999999996e-01</weightTrimRate>
    <maxDepth>1</maxDepth>
    <maxWeakCount>100</maxWeakCount></stageParams>
  <featureParams>
    <maxCatCount>0</maxCatCount>
    <featSize>1</featSize>
    <mode>ALL</mode></featureParams>
  <stageNum>3</stageNum>
  <stages>
    <!-- stage 0 -->
    <_>
      <maxWeakCount>6</maxWeakCount>
      <stageThreshold>-2.6681780815124512e-01</stageThreshold>
      <weakClassifiers>
        <_>
          <internalNodes>
            0 -1 13 -2.2995721083134413e-03</internalNodes>
          <leafValues>
            7.6348549127578735e-01 -7.1042472124099731e-01</leafValues></_>
        <_>
          <internalNodes>
            0 -1 10 -6.4182863570749760e-03</internalNodes>
          <leafValues>
            9.9162799119949341e-01 -4.8731741309165955e-01</leafValues></_>
        <_>
          <internalNodes>
            0 -1 16 -1.7926242202520370e-02</internalNodes>
          <leafValues>
            9.7042149305343628e-01 -4.6514719724655151e-01</leafValues></_>
        <_>
          <internalNodes>
            0 -1 0 3.5811223089694977e-02</internalNodes>
          <leafValues>
            -9.8743861913681030e-01 5.7052326202392578e-01</leafValues></_>
        <_>
          <internalNodes>
            0 -1 18 7.9935211688280106e-03</internalNodes>
          <leafValues>
            -9.3993842601776123e-01 4.3827918171882629e-01</leafValues></_>
        <_>
          <internalNodes>
            0 -1 4 -2.5707702661748044e-05</internalNodes>
          <leafValues>
            -1. 3.7059304118156433e-01</leafValues></_></weakClassifiers></_>
    <!-- stage 1 -->
    <_>
      <maxWeakCount>7</maxWeakCount>
      <stageThreshold>-7.1733623743057251e-01</stageThreshold>
      <weakClassifiers>
        <_>
          <internalNodes>
            0 -1 12 1.7446968704462051e-02</internalNodes>
          <leafValues>
            -5.9930914640426636e-01 8.2422804832458496e-01</leafValues></_>
        <_>
          <internalNodes>
            0 -1 7 3.7572125438600779e-03</internalNodes>
          <leafValues>
            -5.4176288843154907e-01 8.9317870140075684e-01</leafValues></_>
        <_>
          <internalNodes>
            0 -1 1 -1.1034926399588585e-02</internalNodes>
          <leafValues>
            5.9266215562820435e-01 -8.9197158813476562e-01</leafValues></_>
        <_>
          <internalNodes>
            0 -1 5 2.6519536972045898e-02</internalNodes>
          <leafValues>
            5.0540977716445923e-01 -7.9709601402282715e-01</leafValues></_>
        <_>
          <internalNodes>
            0 -1 3 -3.9834594645071775e-05</internalNodes>
          <leafValues>
            -9.5101648569107056e-01 4.1137054562568665e-01</leafValues></_>
        <_>
          <internalNodes>
            0 -1 14 -2.5164565071463585e-02</internalNodes>
          <leafValues>
            9.4429689645767212e-01 -5.1052772998809814e-01</leafValues></_>
        <_>
          <internalNodes>
            0 -1 11 -6.1022168956696987e-03</internalNodes>
          <leafValues>
            9.9650043249130249e-01 -5.7517892122268677e-01</leafValues></_></weakClassifiers></_>
    <!-- stage 2 -->
    <_>
      <maxWeakCount>9</maxWeakCount>
      <stageThreshold>2.9196007177233696e-02</stageThreshold>
      <weakClassifiers>
        <_>
          <internalNodes>
            0 -1 9 3.8354729767888784e-03</internalNodes>
          <leafValues>
            -5.7446807622909546e-01 9.0231364965438843e-01</leafValues></_>
        <_>
          <internalNodes>
            0 -1 3 2.3399623387376778e-05</internalNodes>
          <leafValues>
            5.5636024475097656e-01 -1.</leafValues></_>
        <_>
          <internalNodes>
            0 -1 6 -5.7819173671305180e-03</internalNodes>
          <leafValues>
            9.7929763793945312e-01 -5.1454222202301025e-01</leafValues></_>
        <_>
          <internalNodes>
            0 -1 15 3.3172750845551491e-03</internalNodes>
          <leafValues>
            -3.9422929286956787e-01 9.2962414026260376e-01</leafValues></_>
        <_>
          <internalNodes>
            0 -1 2 -3.2407362596131861e-05</internalNodes>
          <leafValues>
            -9.4620555639266968e-01 4.9068501591682434e-01</leafValues></_>
        <_>
          <internalNodes>
            0 -1 8 -6.2343557365238667e-03</internalNodes>
          <leafValues>
            9.7586655616760254e-01 -4.6577522158622742e-01</leafValues></_>
        <_>
          <internalNodes>
            0 -1 17 -3.3837065100669861e-02</internalNodes>
          <leafValues>
            9.9354380369186401e-01 -4.5777240395545959e-01</leafValues></_>
        <_>
          <internalNodes>
            0 -1 2 3.7256944779073820e-05</internalNodes>
          <leafValues>
            5.2472609281539917e-01 -1.</leafValues></_>
        <_>
          <internalNodes>
            0 -1 19 5.4040059447288513e-02</internalNodes>
          <leafValues>
            -4.5964160561561584e-01 9.9816536903381348e-01</leafValues></_></weakClassifiers></_></stages>
  <features>
    <_>
      <rects>
        <_>
          0 0 20 20 -1.</_>
        <_>
          5 0 10 20 2.</_></rects>
      <tilted>0</tilted></_>
    <_>
      <rects>
        <_>
          0 14 7 6 -1.</_>
        <_>
          0 17 7 3 2.</_></rects>
      <tilted>0</tilted></_>
    <_>
      <rects>
        <_>
          0 17 1 2 -1.</_>
        <_>
          0 18 1 1 2.</_></rects>
      <tilted>0</tilted></_>
    <_>
      <rects>
        <_>
          0 17 1 3 -1.</_>
        <_>
          0 18 1 1 3.</_></rects>
      <tilted>0</tilted></_>
    <_>
      <rects>
        <_>
          0 18 1 2 -1.</_>
        <_>
          0 19 1 1 2.</_></rects>
      <tilted>0</tilted></_>
    <_>
      <rects>
        <_>
          1 4 16 12 -1.</_>
        <_>
          5 4 8 12 2.</_></rects>
      <tilted>0</tilted></_>
    <_>
      <rects>
        <_>
          6 6 2 2 -1.</_>
        <_>
          6 6 1 1 2.</_>
        <_>
          7 7 1 1 2.</_></rects>
      <tilted>0</tilted></_>
    <_>
      <rects>
        <_>
          6 8 3 1 -1.</_>
        <_>
          7 8 1 1 3.</_></rects>
      <tilted>0</tilted></_>
    <_>
      <rects>
        <_>
          6 10 1 3 -1.</_>
        <_>
          6 11 1 1 3.</_></rects>
      <tilted>0</tilted></_>
    <_>
      <rects>
        <_>
          7 14 3 1 -1.</_>
        <_>
          8 14 1 1 3.</_></rects>
      <tilted>0</tilted></_>
    <_>
      <rects>
        <_>
          8 6 3 1 -1.</_>
        <_>
          9 6 1 1 3.</_></rects>
      <tilted>0</tilted></_>
    <_>
      <rects>
        <_>
          9 6 3 1 -1.</_>
        <_>
          10 6 1 1 3.</_></rects>
      <tilted>0</tilted></_>
    <_>
      <rects>
        <_>
          9 7 3 3 -1.</_>
        <_>
          10 8 1 1 9.</_></rects>
      <tilted>0</tilted></_>
    <_>
      <rects>
        <_>
          9 9 1 3 -1.</_>
        <_>
          9 10 1 1 3.</_></rects>
      <tilted>0</tilted></_>
    <_>
      <rects>
        <_>
          9 12 3 3 -1.</_>
        <_>
          10 13 1 1 9.</_></rects>
      <tilted>0</tilted></_>
    <_>
      <rects>
        <_>
          11 12 3 1 -1.</_>
        <_>
          12 12 1 1 3.</_></rects>
      <tilted>0</tilted></_>
    <_>
      <rects>
        <_>
          11 12 3 3 -1.</_>
        <_>
          12 13 1 1 9.</_></rects>
      <tilted>0</tilted></_>
    <_>
      <rects>
        <_>
          13 4 3 10 -1.</_>
        <_>
          14 5 1 10 3.</_></rects>
      <tilted>1</tilted></_>
    <_>
      <rects>
        <_>
          14 0 6 6 -1.</_>
        <_>
          14 3 6 3 2.</_></rects>
      <tilted>0</tilted></_>
    <_>
      <rects>
        <_>
          17 1 3 16 -1.</_>
        <_>
          18 2 1 16 3.</_></rects>
      <tilted>1</tilted></_></features></cascade>
</opencv_storage>
