<?xml version="1.0"?>
<opencv_storage>
<stage0>
  <maxWeakCount>6</maxWeakCount>
  <stageThreshold>-2.6681780815124512e-01</stageThreshold>
  <weakClassifiers>
    <_>
      <internalNodes>
        0 -1 85043 -2.2995721083134413e-03</internalNodes>
      <leafValues>
        7.6348549127578735e-01 -7.1042472124099731e-01</leafValues></_>
    <_>
      <internalNodes>
        0 -1 76292 -6.4182863570749760e-03</internalNodes>
      <leafValues>
        9.9162799119949341e-01 -4.8731741309165955e-01</leafValues></_>
    <_>
      <internalNodes>
        0 -1 99073 -1.7926242202520370e-02</internalNodes>
      <leafValues>
        9.7042149305343628e-01 -4.6514719724655151e-01</leafValues></_>
    <_>
      <internalNodes>
        0 -1 484 3.5811223089694977e-02</internalNodes>
      <leafValues>
        -9.8743861913681030e-01 5.7052326202392578e-01</leafValues></_>
    <_>
      <internalNodes>
        0 -1 110819 7.9935211688280106e-03</internalNodes>
      <leafValues>
        -9.3993842601776123e-01 4.3827918171882629e-01</leafValues></_>
    <_>
      <internalNodes>
        0 -1 9856 -2.5707702661748044e-05</internalNodes>
      <leafValues>
        -1. 3.7059304118156433e-01</leafValues></_></weakClassifiers></stage0>
</opencv_storage>
